53 16
EGFR 0.89069563 0.6620332 0.5397042 0.15207036 0.27387676 0.9838394 -0.97258574 0.9820064 0.7880477 -1.3182229 0.36831486 0.23915674 0.3005664 -0.05938457 -0.9131372 -1.4524277
PI3K 1.4283562 0.22446786 1.0287297 0.34169424 0.0032417795 0.6749882 0.35344198 -0.34485477 -0.12307308 -1.2310582 0.32447505 0.5142937 -0.92777544 -1.0826318 -0.29991865 -0.87109244
ERK12 1.0865517 1.0342818 -0.786901 -0.33320606 0.4904943 0.15267809 -0.61637145 -0.11165058 -0.666858 -0.7946391 -0.79813564 -0.38034123 1.2306508 0.3641647 0.3424834 0.9653832
p38 -0.15148358 1.0495867 -1.0135719 0.15524648 0.48605323 0.33282086 -0.9645645 -0.10230905 -0.16668291 -1.5694196 0.39221522 -0.1179752 0.57736915 0.9716401 1.0418507 -0.005204723
SERUM 0.14009294 0.7394346 0.6918562 1.6924835 -0.42602777 -0.34873283 -0.36602038 0.9848685 0.05216257 -0.6283669 0.3893498 0.60173374 -1.1814222 -0.80750084 -0.33074173 -1.2336072
GSK3B 0.26218817 0.71695346 -0.6769154 0.24198332 -0.21143213 0.82130295 -0.033055548 -0.05419967 1.5393004 1.3323171 -0.18871313 0.6620638 -0.72042304 0.6901739 1.755345 0.4336331
SRC 0.96585596 0.8953676 0.67219007 -0.5216538 -0.31172502 0.35555422 -0.8043029 -0.09352333 0.38631403 -1.6467637 -0.0068800896 0.7988614 0.4354644 0.7192514 -0.34903178 -1.0001729
AKT 0.94579 0.043224733 -1.0085796 0.64931893 -0.30015606 -0.40756136 -0.25082454 0.30199412 0.73437834 1.4737988 -1.0025175 -0.17321643 -0.23777403 -0.69846785 2.1283107 0.76163656
mTOR 0.15459394 0.7112036 -0.62581587 1.280202 -0.2472909 0.022123404 0.029138934 -0.5985813 0.8773894 1.0337262 -0.35461152 0.3227844 -1.068785 -0.37808558 1.5045804 0.7843682
PKC 1.2399702 0.02026488 -0.04578038 -0.47797737 -0.36355817 0.74123144 -0.45599943 1.4352369 0.9754969 1.4037014 -0.9781296 0.6800256 0.33797812 0.54228365 0.9008986 -0.89824516
MSK12 0.331445 1.0589117 -1.8283659 0.28336644 0.018771939 -0.73484415 -0.541695 1.1557058 -0.32994205 -0.6000539 -0.48339742 0.08738044 1.6354582 0.6860271 0.7354888 -0.08155124
RAS 1.5485046 -0.5266689 -0.49274155 -0.29800338 0.30297884 1.0864625 0.036493737 0.8895331 0.052191805 -1.195667 0.023037426 -0.06924282 0.6236515 -0.49524868 -0.26369405 0.22028914
PLCg2 1.1189317 0.60310906 0.90138566 -0.49897602 -0.55041164 0.603571 -0.8402774 0.4936008 0.6511357 -0.08238471 -0.47890824 1.033434 0.2714508 0.5964901 -0.2515972 -1.2844744
PDPK1 1.9673833 0.8510989 -0.20246302 0.4909897 0.07960082 0.337659 1.285564 -0.7106515 0.69122237 0.81492823 -1.3723142 -0.04534301 -1.0589966 -1.7085178 -0.009679675 1.5757592
NFkB 0.5811988 0.51544875 -0.98367965 0.6080421 -0.40722266 -0.9116982 -0.17403036 1.6360158 0.646719 1.0811298 -1.0257151 0.0543485 0.7819533 0.63318014 1.0694267 -0.4963149
RAF 2.100254 -0.44278356 -0.56784636 -0.6735203 0.46308574 1.1344885 0.29284713 1.356442 1.0694959 0.6698056 -0.8839543 -0.4343037 0.26698834 -0.5364389 0.18153001 0.3113697
PIP3 1.3764639 0.366513 0.570331 0.0804482 -0.16947721 0.619164 0.99477506 -1.1637138 1.2042284 0.36574286 -0.07812248 0.66587067 -1.2065499 -1.2727456 0.6858855 0.6268955
MKK4 0.82966775 -0.2507643 -0.89334387 0.87100923 0.1988948 0.8452543 0.4503056 0.22385702 -0.6583183 -2.6202595 0.9984427 0.19719663 -0.42624906 -0.2623955 0.42835787 0.42508405
p90RSK 0.7759078 0.7916826 -1.3275763 1.3120091 -0.19104537 -0.5154371 -0.53697413 -0.20421886 -1.4100811 -0.7668648 -1.1887699 0.07141413 1.1851803 -0.44673693 0.72599757 1.2135261
4EBP1 0.00015567165 0.92900574 -1.1207542 0.025657456 -0.030770438 0.44595245 -0.4719295 -0.82768553 0.60618323 0.05502235 -0.091208376 0.39997736 0.056315213 0.52702904 1.2306247 0.8566939
PAK 0.5459173 0.23083517 0.14391321 1.5955714 -0.24065635 0.13541006 0.44172785 0.18392393 -0.88684314 -1.7182398 0.22977474 0.63698864 -0.865277 -0.8172239 -0.34702736 0.29079813
MET 0.9641002 0.87748873 1.4743237 0.342455 -0.3812631 -0.31897876 -0.45705444 0.24949375 -0.119460545 -0.68527174 -0.3173781 0.76964194 -0.26106507 0.06990174 -0.5837986 -0.54138184
BTK 1.6634834 0.808826 1.3255798 -0.8806794 -0.43642792 0.87163526 -0.6911457 -0.32864428 0.59792787 -1.1558542 -0.47274074 1.1482855 0.2931095 0.4351286 -0.24896643 -1.5620365
p53 -0.837789 1.6234156 -0.8239801 0.8691684 0.13972777 -0.22697802 -0.9763037 0.19784813 1.0926759 -1.2275648 1.183826 0.12277681 -1.1607 1.098393 1.1632421 0.25020006
MEK12_S221 2.6250339 0.4086299 -0.45685887 -0.67861927 0.24962631 0.72934425 0.67152 0.21919759 0.7230055 0.50577664 -1.1819705 -0.5766233 0.31870365 -1.1675876 -0.31792232 1.6011676
RB -0.8039164 1.2811793 -0.54031503 1.1738951 0.043027777 0.33656085 -0.81263644 -0.039853416 1.51474 0.515115 0.7352364 0.47946197 -1.5744168 0.5544996 1.5573605 -0.04198931
AMPK -0.5352656 0.99776 -0.05276203 1.6377566 -0.631771 -0.06963339 -0.28629437 0.0933435 0.9695157 0.45670202 0.35274163 0.61443365 -1.7105217 -0.14333048 0.6890784 0.14646935
p70S6K 0.7570517 0.8508137 -0.67211103 1.9053495 -0.32054335 0.35654998 0.9352432 -0.82292825 -0.36574242 0.35540533 -0.7672403 0.2632285 -1.1479381 -1.5518757 0.40733206 1.7553618
S6 0.71302575 0.47279757 -0.6518864 2.2472875 -0.27947026 -0.32541457 0.5641703 -0.43629858 -1.3894126 -0.9493079 -0.8139364 0.25127912 -0.58514386 -1.0119985 -0.03651263 1.2621042
AKT_S473 0.97089016 0.24934775 -0.036121212 0.723748 -0.5296982 0.065803155 0.5344208 -0.76215667 0.7677245 1.1251109 -0.6491764 0.43874505 -0.89651597 -0.97697175 1.6296047 0.4707202
CREB 0.95962846 0.113984376 -1.3194662 0.9901074 -0.2716678 -0.4743382 -0.937957 -0.3645965 -0.91979975 -0.12085344 -1.1091837 -0.42978916 0.6972748 -0.085393496 1.9764868 1.1489953
MKK36 0.40433696 1.1827607 -1.543078 -0.11969751 0.2037213 -0.47133505 -0.65332407 0.519093 -0.15131119 -1.2569454 -0.25565332 -0.11027088 1.3635126 0.90923345 0.53571546 0.45251396
FAK 0.99778384 1.3031127 0.55353874 -0.37910497 -0.25421658 -0.49921027 -0.9830221 -0.26070982 -0.4947689 -0.97243965 -0.62348276 0.5755679 0.7626129 0.22660683 -0.4183034 -0.12480914
MAPKAPK2 0.65650594 0.3062193 -1.3738784 0.23303784 -0.15322968 -0.14012955 -1.1991814 -0.5207838 -0.43651873 -1.2992653 -0.2838835 -0.2537456 0.9147086 0.38608816 1.2692227 1.0445508
STAT5 1.4313457 0.86640954 0.9837602 -0.643496 -0.49152935 0.97493374 -0.9267662 0.14360383 0.693282 -1.6590451 -0.08236647 1.053208 0.39506942 0.4291555 -0.69510835 -1.4440387
cleavedCas -0.89032584 2.0292299 -0.08461033 1.6809213 0.2057655 -0.65756893 -1.3960906 1.0031223 1.0245606 -1.7115703 1.4720397 -0.032852497 -1.5618422 0.5272208 0.8070879 -0.38604698
PKA 0.42682168 0.7264184 -0.5348908 1.4656942 -0.74765885 -1.3075713 -0.33709958 2.487802 0.4295164 0.9777287 -0.90421873 0.3701891 0.14549196 -0.22962806 0.5030876 -1.3076246
cAMP 0.34028327 0.7473363 0.2784289 1.7961019 -0.92822057 -1.4398966 -0.06574658 2.33516 0.5160668 0.008388051 -0.24655971 0.4485099 -0.64381 -0.34748283 -0.29887265 -1.2453746
SMAD23 -0.49747062 1.7434605 0.41231832 1.7639526 -0.09822011 -0.8602119 -0.9544994 1.3355577 0.8179856 -1.4172215 1.1197649 0.1567639 -1.6989675 0.2180558 -0.09355571 -0.42568892
AKT_T308 1.5690764 0.5697875 -0.59388477 0.73208827 -0.36330134 -0.20281388 0.54448247 -0.40054882 0.800093 1.3838291 -1.1840694 -0.47822708 -0.60168564 -1.2856419 1.1188872 1.3457929
H3 0.64899987 1.0075115 -1.4238735 1.1375363 0.1605795 -0.72680587 -0.2843363 0.66714007 -1.1502961 -0.84629387 -1.2505288 -0.025940128 1.4560442 0.4889452 0.83601964 0.63285506
INSR 0.6624859 0.41222727 1.1298947 1.2414426 -0.34391758 -0.049939997 0.20781544 0.7416711 0.24796927 -1.0935827 0.43753836 0.77938235 -1.1835372 -0.7534253 -0.6519292 -0.7747099
RAF_S259 1.8116028 -0.64240694 -0.7313232 0.0091684405 -0.15633109 0.63189137 -0.07891014 0.9764885 0.7077283 1.1502161 -1.0286577 -0.5034923 0.22394894 -0.6258354 1.1373487 0.6116841
PTEN 0.96601003 0.62908936 0.25969213 0.10402201 0.15626116 1.0549436 0.626602 -1.0072197 1.2804904 1.0310651 -0.22351654 0.83855623 -1.2489644 -0.33617693 1.5977958 0.18336117
JNK 1.5951967 -0.6552338 -0.9384527 0.12227261 0.50059587 1.3477962 0.34352174 0.871768 -0.5473771 -2.2285206 0.5649564 -0.116662405 0.12954034 -0.4366155 0.16664456 0.2541011
MAP3Ks 1.233605 -0.33337343 0.11292831 0.6147005 0.049115546 1.1521498 0.6025421 -0.1231494 -0.35116792 -2.456078 0.8463826 0.71622723 -0.7931281 -0.6221989 0.13408867 -0.022745114
MEK12 1.8076618 0.91232085 -0.9834283 -0.82870567 0.40667236 0.16313761 0.11342502 0.031523068 0.40125635 -0.27813017 -1.18006 -0.614239 0.9569036 -0.4493563 -0.398121 1.674973
STAT3 0.84521496 0.9330781 0.41823682 -0.3925212 -0.07353431 0.90382904 -1.1325178 0.29091057 0.63353866 -1.5377098 0.21793845 0.62841004 0.46408793 0.28687698 -0.7637499 -1.2952434
STAT1 0.30741245 0.76022875 -0.6713733 -0.20108628 0.07757539 0.6109 -1.0483718 0.3277273 0.41080937 -1.754034 0.57796466 0.2716559 0.7191671 0.6366649 -0.1637934 -0.6865271
SYK 1.716949 0.23720582 1.4442749 -0.389897 -0.5679062 0.8853534 0.15503047 -0.4845786 0.3350823 -1.3766181 -0.33883715 1.2700067 -0.24075548 -0.10584812 -0.43044382 -0.6673147
MARCKS 1.3522011 0.24374561 -0.13978998 -0.4001009 -0.17312592 0.87186426 -0.25836235 1.4509851 1.5071756 1.6105183 -0.96117425 0.767643 0.32674554 0.9392189 0.82622284 -1.0058043
b-catenin 0.15761837 0.7708218 -0.72595525 0.3885712 0.03893391 1.017261 -0.27255887 -0.31380397 1.3300667 1.3315915 -0.3677568 0.8090453 -0.8758902 0.69432586 1.8829399 0.33399695
EGF 0.8407158 0.75196064 0.29566416 0.008336565 0.022014553 1.0323843 -1.0424727 0.9475802 0.862488 -1.2766656 0.4280478 0.37877053 0.29493892 -0.08220668 -1.0264486 -1.339377
